<?xml version="1.0"?>
<opencv_storage>
<cascade>
  <stageType>BOOST</stageType>
  <featureType>HAAR</featureType>
  <height>20</height>
  <width>20</width>
  <stageParams>
    <boostType>GAB</boostType>
    <minHitRate>9.9500000476837158e-01</minHitRate>
    <maxFalseAlarm>5.0000000000000000e-01</maxFalseAlarm>
    <weightTrimRate>9.4999999999999996e-01</weightTrimRate>
    <maxDepth>1</maxDepth>
    <maxWeakCount>100</maxWeakCount></stageParams>
  <featureParams>
    <maxCatCount>0</maxCatCount>
    <featSize>1</featSize>
    <mode>BASIC</mode></featureParams>
  <stageNum>11</stageNum>
  <stages>
    <!-- stage 0 -->
    <_>
      <maxWeakCount>4</maxWeakCount>
      <stageThreshold>-1.7010899782180786e+00</stageThreshold>
      <weakClassifiers>
        <_>
          <internalNodes>
            0 -1 27 7.9571589827537537e-02</internalNodes>
          <leafValues>
            -8.5242360830307007e-01 1.</leafValues></_>
        <_>
          <internalNodes>
            0 -1 11 1.5374321490526199e-02</internalNodes>
          <leafValues>
            -6.8008875846862793e-01 8.3276861906051636e-01</leafValues></_>
        <_>
          <internalNodes>
            0 -1 7 -1.6535597751499154e-05</internalNodes>
          <leafValues>
            6.3810348510742188e-01 -7.4513572454452515e-01</leafValues></_>
        <_>
          <internalNodes>
            0 -1 42 1.8512216047383845e-04</internalNodes>
          <leafValues>
            -8.4067338705062866e-01 5.7655811309814453e-01</leafValues></_></weakClassifiers></_>
    <!-- stage 1 -->
    <_>
      <maxWeakCount>4</maxWeakCount>
      <stageThreshold>-1.7060877084732056e+00</stageThreshold>
      <weakClassifiers>
        <_>
          <internalNodes>
            0 -1 22 1.2810891866683960e-01</internalNodes>
          <leafValues>
            -8.0853658914566040e-01 9.0555554628372192e-01</leafValues></_>
        <_>
          <internalNodes>
            0 -1 24 -8.1512502219993621e-05</internalNodes>
          <leafValues>
            6.1024695634841919e-01 -7.5966268777847290e-01</leafValues></_>
        <_>
          <internalNodes>
            0 -1 1 1.7671059817075729e-02</internalNodes>
          <leafValues>
            -6.0183733701705933e-01 7.8165626525878906e-01</leafValues></_>
        <_>
          <internalNodes>
            0 -1 0 6.4388202736154199e-04</internalNodes>
          <leafValues>
            4.6394884586334229e-01 -8.1862574815750122e-01</leafValues></_></weakClassifiers></_>
    <!-- stage 2 -->
    <_>
      <maxWeakCount>6</maxWeakCount>
      <stageThreshold>-1.4272528886795044e+00</stageThreshold>
      <weakClassifiers>
        <_>
          <internalNodes>
            0 -1 9 1.7151001840829849e-02</internalNodes>
          <leafValues>
            -7.9211467504501343e-01 1.</leafValues></_>
        <_>
          <internalNodes>
            0 -1 28 1.2522462010383606e-01</internalNodes>
          <leafValues>
            -5.3547692298889160e-01 8.5946369171142578e-01</leafValues></_>
        <_>
          <internalNodes>
            0 -1 13 1.7394954338669777e-02</internalNodes>
          <leafValues>
            -5.3798419237136841e-01 7.9939448833465576e-01</leafValues></_>
        <_>
          <internalNodes>
            0 -1 14 1.2404909648466855e-04</internalNodes>
          <leafValues>
            -6.4241075515747070e-01 6.0330390930175781e-01</leafValues></_>
        <_>
          <internalNodes>
            0 -1 3 5.4044001735746861e-03</internalNodes>
          <leafValues>
            5.2268892526626587e-01 -8.8522207736968994e-01</leafValues></_>
        <_>
          <internalNodes>
            0 -1 32 -2.9944741982035339e-05</internalNodes>
          <leafValues>
            5.6007266044616699e-01 -6.8766999244689941e-01</leafValues></_></weakClassifiers></_>
    <!-- stage 3 -->
    <_>
      <maxWeakCount>4</maxWeakCount>
      <stageThreshold>-1.2979025840759277e+00</stageThreshold>
      <weakClassifiers>
        <_>
          <internalNodes>
            0 -1 6 1.0844932694453746e-04</internalNodes>
          <leafValues>
            -9.2744594812393188e-01 4.1778126358985901e-01</leafValues></_>
        <_>
          <internalNodes>
            0 -1 15 9.3473754823207855e-03</internalNodes>
          <leafValues>
            -6.6226768493652344e-01 7.6076275110244751e-01</leafValues></_>
        <_>
          <internalNodes>
            0 -1 40 1.7428364604711533e-02</internalNodes>
          <leafValues>
            -5.3848713636398315e-01 8.1448847055435181e-01</leafValues></_>
        <_>
          <internalNodes>
            0 -1 25 -2.3198456037789583e-03</internalNodes>
          <leafValues>
            8.3029818534851074e-01 -4.2891025543212891e-01</leafValues></_></weakClassifiers></_>
    <!-- stage 4 -->
    <_>
      <maxWeakCount>3</maxWeakCount>
      <stageThreshold>-7.4611932039260864e-01</stageThreshold>
      <weakClassifiers>
        <_>
          <internalNodes>
            0 -1 21 1.2046825885772705e-01</internalNodes>
          <leafValues>
            -7.5436520576477051e-01 8.8405799865722656e-01</leafValues></_>
        <_>
          <internalNodes>
            0 -1 10 1.9072227180004120e-02</internalNodes>
          <leafValues>
            -4.9070534110069275e-01 9.4715231657028198e-01</leafValues></_>
        <_>
          <internalNodes>
            0 -1 35 -5.3872484713792801e-02</internalNodes>
          <leafValues>
            -8.9546376466751099e-01 4.9895119667053223e-01</leafValues></_></weakClassifiers></_>
    <!-- stage 5 -->
    <_>
      <maxWeakCount>5</maxWeakCount>
      <stageThreshold>-1.6035166978836060e+00</stageThreshold>
      <weakClassifiers>
        <_>
          <internalNodes>
            0 -1 26 3.2303735613822937e-02</internalNodes>
          <leafValues>
            -7.4278056621551514e-01 7.7223086357116699e-01</leafValues></_>
        <_>
          <internalNodes>
            0 -1 30 -1.6683416106388904e-05</internalNodes>
          <leafValues>
            6.7807227373123169e-01 -5.9460711479187012e-01</leafValues></_>
        <_>
          <internalNodes>
            0 -1 2 4.6154506504535675e-02</internalNodes>
          <leafValues>
            -5.6051516532897949e-01 7.6644200086593628e-01</leafValues></_>
        <_>
          <internalNodes>
            0 -1 43 -3.6688710679300129e-05</internalNodes>
          <leafValues>
            7.4046748876571655e-01 -4.1827183961868286e-01</leafValues></_>
        <_>
          <internalNodes>
            0 -1 20 -1.5237170373438857e-05</internalNodes>
          <leafValues>
            7.3992317914962769e-01 -4.4608125090599060e-01</leafValues></_></weakClassifiers></_>
    <!-- stage 6 -->
    <_>
      <maxWeakCount>4</maxWeakCount>
      <stageThreshold>-9.2879956960678101e-01</stageThreshold>
      <weakClassifiers>
        <_>
          <internalNodes>
            0 -1 29 8.0710664391517639e-02</internalNodes>
          <leafValues>
            -7.7644592523574829e-01 8.9140272140502930e-01</leafValues></_>
        <_>
          <internalNodes>
            0 -1 23 -7.8742872574366629e-05</internalNodes>
          <leafValues>
            7.0297622680664063e-01 -6.1354643106460571e-01</leafValues></_>
        <_>
          <internalNodes>
            0 -1 5 -7.1269497275352478e-02</internalNodes>
          <leafValues>
            9.6263605356216431e-01 -4.0931814908981323e-01</leafValues></_>
        <_>
          <internalNodes>
            0 -1 37 4.6096391975879669e-02</internalNodes>
          <leafValues>
            -4.0301457047462463e-01 8.7051087617874146e-01</leafValues></_></weakClassifiers></_>
    <!-- stage 7 -->
    <_>
      <maxWeakCount>6</maxWeakCount>
      <stageThreshold>-1.1710071563720703e+00</stageThreshold>
      <weakClassifiers>
        <_>
          <internalNodes>
            0 -1 18 1.3186728954315186e-01</internalNodes>
          <leafValues>
            -7.3310226202011108e-01 1.</leafValues></_>
        <_>
          <internalNodes>
            0 -1 36 2.3382436484098434e-02</internalNodes>
          <leafValues>
            -5.6105822324752808e-01 9.5425224304199219e-01</leafValues></_>
        <_>
          <internalNodes>
            0 -1 12 2.5886874645948410e-02</internalNodes>
          <leafValues>
            -5.9855753183364868e-01 7.4801635742187500e-01</leafValues></_>
        <_>
          <internalNodes>
            0 -1 17 8.3200784865766764e-04</internalNodes>
          <leafValues>
            4.3745324015617371e-01 -9.1263252496719360e-01</leafValues></_>
        <_>
          <internalNodes>
            0 -1 33 5.4498657584190369e-02</internalNodes>
          <leafValues>
            -4.2873862385749817e-01 1.</leafValues></_>
        <_>
          <internalNodes>
            0 -1 16 1.5890427675913088e-05</internalNodes>
          <leafValues>
            -5.5899739265441895e-01 7.1299624443054199e-01</leafValues></_></weakClassifiers></_>
    <!-- stage 8 -->
    <_>
      <maxWeakCount>3</maxWeakCount>
      <stageThreshold>-8.8539105653762817e-01</stageThreshold>
      <weakClassifiers>
        <_>
          <internalNodes>
            0 -1 34 -2.4877442046999931e-03</internalNodes>
          <leafValues>
            8.0653595924377441e-01 -8.0896443128585815e-01</leafValues></_>
        <_>
          <internalNodes>
            0 -1 41 1.1615955736488104e-03</internalNodes>
          <leafValues>
            4.3937763571739197e-01 -9.2811119556427002e-01</leafValues></_>
        <_>
          <internalNodes>
            0 -1 4 3.4341491758823395e-02</internalNodes>
          <leafValues>
            -5.1580423116683960e-01 1.</leafValues></_></weakClassifiers></_>
    <!-- stage 9 -->
    <_>
      <maxWeakCount>4</maxWeakCount>
      <stageThreshold>-1.3670227527618408e+00</stageThreshold>
      <weakClassifiers>
        <_>
          <internalNodes>
            0 -1 31 1.5155442270042840e-05</internalNodes>
          <leafValues>
            -8.1708055734634399e-01 1.</leafValues></_>
        <_>
          <internalNodes>
            0 -1 39 1.4463304978562519e-05</internalNodes>
          <leafValues>
            -6.4372146129608154e-01 1.</leafValues></_>
        <_>
          <internalNodes>
            0 -1 38 4.7425390221178532e-05</internalNodes>
          <leafValues>
            -6.1785590648651123e-01 1.</leafValues></_>
        <_>
          <internalNodes>
            0 -1 8 5.9722727164626122e-03</internalNodes>
          <leafValues>
            7.1163517236709595e-01 -9.7220581769943237e-01</leafValues></_></weakClassifiers></_>
    <!-- stage 10 -->
    <_>
      <maxWeakCount>1</maxWeakCount>
      <stageThreshold>1.</stageThreshold>
      <weakClassifiers>
        <_>
          <internalNodes>
            0 -1 19 -8.5594221949577332e-02</internalNodes>
          <leafValues>
            -9.9800199270248413e-01 1.</leafValues></_></weakClassifiers></_></stages>
  <features>
    <_>
      <rects>
        <_>
          0 0 1 6 -1.</_>
        <_>
          0 3 1 3 2.</_></rects>
      <tilted>0</tilted></_>
    <_>
      <rects>
        <_>
          0 0 6 16 -1.</_>
        <_>
          0 0 3 8 2.</_>
        <_>
          3 8 3 8 2.</_></rects>
      <tilted>0</tilted></_>
    <_>
      <rects>
        <_>
          0 0 8 16 -1.</_>
        <_>
          0 0 4 8 2.</_>
        <_>
          4 8 4 8 2.</_></rects>
      <tilted>0</tilted></_>
    <_>
      <rects>
        <_>
          0 0 10 2 -1.</_>
        <_>
          5 0 5 2 2.</_></rects>
      <tilted>0</tilted></_>
    <_>
      <rects>
        <_>
          0 0 18 8 -1.</_>
        <_>
          0 0 9 4 2.</_>
        <_>
          9 4 9 4 2.</_></rects>
      <tilted>0</tilted></_>
    <_>
      <rects>
        <_>
          0 0 17 9 -1.</_>
        <_>
          0 3 17 3 3.</_></rects>
      <tilted>0</tilted></_>
    <_>
      <rects>
        <_>
          0 6 12 1 -1.</_>
        <_>
          6 6 6 1 2.</_></rects>
      <tilted>0</tilted></_>
    <_>
      <rects>
        <_>
          0 7 14 4 -1.</_>
        <_>
          0 9 14 2 2.</_></rects>
      <tilted>0</tilted></_>
    <_>
      <rects>
        <_>
          0 9 4 3 -1.</_>
        <_>
          0 10 4 1 3.</_></rects>
      <tilted>0</tilted></_>
    <_>
      <rects>
        <_>
          0 11 9 2 -1.</_>
        <_>
          3 11 3 2 3.</_></rects>
      <tilted>0</tilted></_>
    <_>
      <rects>
        <_>
          0 12 4 4 -1.</_>
        <_>
          2 12 2 4 2.</_></rects>
      <tilted>0</tilted></_>
    <_>
      <rects>
        <_>
          0 13 6 2 -1.</_>
        <_>
          3 13 3 2 2.</_></rects>
      <tilted>0</tilted></_>
    <_>
      <rects>
        <_>
          0 13 8 4 -1.</_>
        <_>
          4 13 4 4 2.</_></rects>
      <tilted>0</tilted></_>
    <_>
      <rects>
        <_>
          0 14 12 2 -1.</_>
        <_>
          4 14 4 2 3.</_></rects>
      <tilted>0</tilted></_>
    <_>
      <rects>
        <_>
          0 15 16 2 -1.</_>
        <_>
          8 15 8 2 2.</_></rects>
      <tilted>0</tilted></_>
    <_>
      <rects>
        <_>
          0 16 12 1 -1.</_>
        <_>
          4 16 4 1 3.</_></rects>
      <tilted>0</tilted></_>
    <_>
      <rects>
        <_>
          1 15 15 1 -1.</_>
        <_>
          6 15 5 1 3.</_></rects>
      <tilted>0</tilted></_>
    <_>
      <rects>
        <_>
          2 0 4 1 -1.</_>
        <_>
          4 0 2 1 2.</_></rects>
      <tilted>0</tilted></_>
    <_>
      <rects>
        <_>
          2 1 15 12 -1.</_>
        <_>
          2 5 15 4 3.</_></rects>
      <tilted>0</tilted></_>
    <_>
      <rects>
        <_>
          3 1 8 10 -1.</_>
        <_>
          7 1 4 10 2.</_></rects>
      <tilted>0</tilted></_>
    <_>
      <rects>
        <_>
          3 6 11 2 -1.</_>
        <_>
          3 7 11 1 2.</_></rects>
      <tilted>0</tilted></_>
    <_>
      <rects>
        <_>
          4 0 9 12 -1.</_>
        <_>
          4 4 9 4 3.</_></rects>
      <tilted>0</tilted></_>
    <_>
      <rects>
        <_>
          4 0 14 12 -1.</_>
        <_>
          4 4 14 4 3.</_></rects>
      <tilted>0</tilted></_>
    <_>
      <rects>
        <_>
          4 3 6 10 -1.</_>
        <_>
          7 3 3 10 2.</_></rects>
      <tilted>0</tilted></_>
    <_>
      <rects>
        <_>
          4 6 9 4 -1.</_>
        <_>
          4 8 9 2 2.</_></rects>
      <tilted>0</tilted></_>
    <_>
      <rects>
        <_>
          4 11 12 1 -1.</_>
        <_>
          8 11 4 1 3.</_></rects>
      <tilted>0</tilted></_>
    <_>
      <rects>
        <_>
          5 0 3 12 -1.</_>
        <_>
          5 4 3 4 3.</_></rects>
      <tilted>0</tilted></_>
    <_>
      <rects>
        <_>
          5 0 9 12 -1.</_>
        <_>
          5 4 9 4 3.</_></rects>
      <tilted>0</tilted></_>
    <_>
      <rects>
        <_>
          5 0 11 12 -1.</_>
        <_>
          5 4 11 4 3.</_></rects>
      <tilted>0</tilted></_>
    <_>
      <rects>
        <_>
          5 1 15 9 -1.</_>
        <_>
          5 4 15 3 3.</_></rects>
      <tilted>0</tilted></_>
    <_>
      <rects>
        <_>
          5 12 12 2 -1.</_>
        <_>
          9 12 4 2 3.</_></rects>
      <tilted>0</tilted></_>
    <_>
      <rects>
        <_>
          6 4 8 3 -1.</_>
        <_>
          6 5 8 1 3.</_></rects>
      <tilted>0</tilted></_>
    <_>
      <rects>
        <_>
          6 8 12 2 -1.</_>
        <_>
          6 9 12 1 2.</_></rects>
      <tilted>0</tilted></_>
    <_>
      <rects>
        <_>
          7 1 7 6 -1.</_>
        <_>
          7 4 7 3 2.</_></rects>
      <tilted>0</tilted></_>
    <_>
      <rects>
        <_>
          7 5 2 12 -1.</_>
        <_>
          7 9 2 4 3.</_></rects>
      <tilted>0</tilted></_>
    <_>
      <rects>
        <_>
          8 0 6 18 -1.</_>
        <_>
          11 0 3 18 2.</_></rects>
      <tilted>0</tilted></_>
    <_>
      <rects>
        <_>
          8 0 6 6 -1.</_>
        <_>
          8 2 6 2 3.</_></rects>
      <tilted>0</tilted></_>
    <_>
      <rects>
        <_>
          8 0 8 9 -1.</_>
        <_>
          8 3 8 3 3.</_></rects>
      <tilted>0</tilted></_>
    <_>
      <rects>
        <_>
          11 6 2 8 -1.</_>
        <_>
          11 6 1 4 2.</_>
        <_>
          12 10 1 4 2.</_></rects>
      <tilted>0</tilted></_>
    <_>
      <rects>
        <_>
          11 7 9 1 -1.</_>
        <_>
          14 7 3 1 3.</_></rects>
      <tilted>0</tilted></_>
    <_>
      <rects>
        <_>
          13 0 2 8 -1.</_>
        <_>
          13 4 2 4 2.</_></rects>
      <tilted>0</tilted></_>
    <_>
      <rects>
        <_>
          14 8 3 1 -1.</_>
        <_>
          15 8 1 1 3.</_></rects>
      <tilted>0</tilted></_>
    <_>
      <rects>
        <_>
          15 0 1 16 -1.</_>
        <_>
          15 8 1 8 2.</_></rects>
      <tilted>0</tilted></_>
    <_>
      <rects>
        <_>
          15 8 3 12 -1.</_>
        <_>
          15 14 3 6 2.</_></rects>
      <tilted>0</tilted></_></features></cascade>
</opencv_storage>
